{"type":"n","options":{"inputSize":1,"hiddenLayers":[20],"outputSize":1,"decayRate":0.999,"smoothEps":1e-8,"regc":0.000001,"clipval":5},"hiddenLayers":[{"inputMatrix":{"rows":20,"columns":1,"weights":{"0":-0.251939982175827,"1":0.12344253063201904,"2":0.25362667441368103,"3":0.3482513129711151,"4":-1.2352120876312256,"5":-0.2627774178981781,"6":-0.0845852866768837,"7":0.5226593613624573,"8":-0.3313460350036621,"9":0.45143789052963257,"10":0.642035186290741,"11":-0.11547593027353287,"12":-0.8199005722999573,"13":0.3049488365650177,"14":-0.2156384289264679,"15":0.8882222771644592,"16":0.6758908033370972,"17":0.5913107395172119,"18":-0.4274502098560333,"19":-0.31223878264427185}},"inputHidden":{"rows":20,"columns":20,"weights":{"0":-0.05868321284651756,"1":-0.6531530022621155,"2":0.7324440479278564,"3":-0.6752634644508362,"4":-0.36000728607177734,"5":0.6457858681678772,"6":-0.9399985074996948,"7":0.8976159691810608,"8":0.44525986909866333,"9":0.900272786617279,"10":0.7648457288742065,"11":-0.4230562150478363,"12":-0.5036529898643494,"13":-0.08713828772306442,"14":0.7252371907234192,"15":0.8043091893196106,"16":-0.5094528794288635,"17":0.5978020429611206,"18":0.7539525032043457,"19":0.6585395932197571,"20":0.19671835005283356,"21":-0.5849487781524658,"22":0.6343923211097717,"23":1.0679728984832764,"24":-0.27709442377090454,"25":0.6686567664146423,"26":-0.6340988874435425,"27":0.06241545081138611,"28":0.32391372323036194,"29":0.6186366677284241,"30":0.768724799156189,"31":-0.1492452323436737,"32":-0.31632867455482483,"33":-0.4974539279937744,"34":0.6169255971908569,"35":0.5346184372901917,"36":-0.553827166557312,"37":0.09196522831916809,"38":0.48126450181007385,"39":0.5124142169952393,"40":-0.003368077799677849,"41":-0.533767819404602,"42":0.08945851027965546,"43":-0.08564844727516174,"44":-0.12376195192337036,"45":0.7024902105331421,"46":-0.8913653492927551,"47":0.9378953576087952,"48":0.317020058631897,"49":0.9403392672538757,"50":0.05579310283064842,"51":-0.6408773064613342,"52":-0.6822526454925537,"53":-0.3582608103752136,"54":0.564841091632843,"55":0.9216749668121338,"56":-0.8721722364425659,"57":0.6236897706985474,"58":0.7641634941101074,"59":0.6560636162757874,"60":-0.5913448929786682,"61":-0.7315491437911987,"62":0.3456000089645386,"63":-1.1738888025283813,"64":-0.7275218367576599,"65":0.5377476811408997,"66":-0.591930627822876,"67":1.4534480571746826,"68":0.1548759937286377,"69":0.32297441363334656,"70":-0.07210154086351395,"71":0.22430573403835297,"72":0.6644812822341919,"73":0.6483014225959778,"74":0.6023817658424377,"75":0.29506105184555054,"76":0.7101201415061951,"77":-0.03525370731949806,"78":0.2525491714477539,"79":0.24300532042980194,"80":0.11586271226406097,"81":0.9259302616119385,"82":0.5722746253013611,"83":-0.43205371499061584,"84":0.1256321221590042,"85":0.4762044847011566,"86":-0.3458607792854309,"87":0.3861936032772064,"88":0.5498067736625671,"89":0.291488379240036,"90":0.42816048860549927,"91":0.03547896444797516,"92":-0.21156050264835358,"93":0.03543044254183769,"94":0.3055460453033447,"95":-0.1190275326371193,"96":-1.0304126739501953,"97":0.3950519859790802,"98":0.16528604924678802,"99":0.05110613629221916,"100":-0.5520786046981812,"101":-0.6199924349784851,"102":-0.34676358103752136,"103":0.9796493053436279,"104":-0.5845166444778442,"105":-0.35672831535339355,"106":0.5240409970283508,"107":-0.07138676941394806,"108":-0.29232901334762573,"109":-0.44921940565109253,"110":-0.6883662343025208,"111":0.7248959541320801,"112":0.4865689277648926,"113":0.4557577967643738,"114":-0.2482021301984787,"115":-0.3931494653224945,"116":0.4676445424556732,"117":-0.5045802593231201,"118":-0.5145221948623657,"119":-0.615738034248352,"120":-0.8271650671958923,"121":-0.9494338631629944,"122":-0.28584030270576477,"123":0.9039130210876465,"124":-0.8162444829940796,"125":-0.20296812057495117,"126":0.3108341097831726,"127":0.32005903124809265,"128":-0.1248558759689331,"129":-0.41537705063819885,"130":-1.0533570051193237,"131":0.5502955913543701,"132":0.7254082560539246,"133":0.5024870038032532,"134":-0.1497555375099182,"135":-0.11378734558820724,"136":0.3534780740737915,"137":-0.6594966053962708,"138":-0.4685438871383667,"139":-0.6735785603523254,"140":-1.4949488639831543,"141":-0.5715193748474121,"142":-2.5196754932403564,"143":-0.011245855130255222,"144":-1.054563045501709,"145":0.016210908070206642,"146":-0.06607288122177124,"147":1.5618199110031128,"148":-0.5232560038566589,"149":0.00230771629139781,"150":-1.8531124591827393,"151":-0.25394564867019653,"152":1.2486014366149902,"153":-0.10481788218021393,"154":0.5866103172302246,"155":0.2236527055501938,"156":1.8353698253631592,"157":-0.03618204593658447,"158":-0.2711047828197479,"159":-0.18619731068611145,"160":0.05020463466644287,"161":0.2846081554889679,"162":0.6997373700141907,"163":-0.27550965547561646,"164":-0.10692798346281052,"165":0.7340986132621765,"166":-0.816875159740448,"167":0.33567678928375244,"168":0.010557597503066063,"169":0.7940971255302429,"170":0.4990932047367096,"171":0.15179584920406342,"172":-0.46215611696243286,"173":0.6387330293655396,"174":0.6694175601005554,"175":0.6612231135368347,"176":-0.12400304526090622,"177":-0.04892454668879509,"178":0.8079864382743835,"179":0.7589952349662781,"180":-1.1312063932418823,"181":-1.1761621236801147,"182":-0.452598512172699,"183":0.5103463530540466,"184":-1.184217095375061,"185":0.05167876183986664,"186":-0.07364827394485474,"187":0.6487767696380615,"188":-0.17123687267303467,"189":-0.009687485173344612,"190":-1.1215087175369263,"191":0.6219598650932312,"192":1.0418274402618408,"193":0.4889836013317108,"194":0.26932406425476074,"195":0.2902941405773163,"196":0.5186779499053955,"197":-0.5392075181007385,"198":-0.09911920875310898,"199":-0.32291075587272644,"200":-0.8373257517814636,"201":-0.6796330213546753,"202":-0.1519474983215332,"203":-1.7251850366592407,"204":-0.973671019077301,"205":0.9502077698707581,"206":-1.2397922277450562,"207":2.1537094116210938,"208":0.4058972895145416,"209":1.3321375846862793,"210":-0.158072829246521,"211":-0.15526647865772247,"212":-0.10644561797380447,"213":0.066583551466465,"214":0.981986939907074,"215":1.0049070119857788,"216":-0.8158812522888184,"217":-0.33867254853248596,"218":0.8809759616851807,"219":0.7956503033638,"220":-0.18020978569984436,"221":-0.2849836051464081,"222":-0.645725667476654,"223":0.550510585308075,"224":-0.1194828450679779,"225":0.6334012150764465,"226":-0.6196533441543579,"227":0.5667378306388855,"228":-0.48426076769828796,"229":0.596194863319397,"230":0.02162141725420952,"231":0.2687393128871918,"232":-0.35410404205322266,"233":-0.2381490021944046,"234":0.6191450357437134,"235":0.7514190673828125,"236":-0.15409979224205017,"237":-0.6107392907142639,"238":0.5230635404586792,"239":0.553149402141571,"240":-1.2632631063461304,"241":-0.595852792263031,"242":-0.3252585232257843,"243":-0.5768738389015198,"244":-1.0400233268737793,"245":0.03571149706840515,"246":0.15501318871974945,"247":0.5712440013885498,"248":-0.3598315119743347,"249":0.30331674218177795,"250":-1.4033387899398804,"251":0.2976439893245697,"252":-0.2601993680000305,"253":0.4180420935153961,"254":-0.14763802289962769,"255":-0.08579207211732864,"256":-1.3474671840667725,"257":-0.6680420637130737,"258":-0.18307650089263916,"259":-0.2469712495803833,"260":-0.12836351990699768,"261":-0.061242006719112396,"262":0.3578473627567291,"263":1.1562765836715698,"264":-0.3630325198173523,"265":0.6635556817054749,"266":-0.7157869338989258,"267":0.8357536792755127,"268":0.2092316746711731,"269":0.7303986549377441,"270":-0.7640758752822876,"271":0.2977941334247589,"272":-0.365984171628952,"273":-0.035726193338632584,"274":0.6426826119422913,"275":0.8088943958282471,"276":-0.8632407188415527,"277":-0.268756240606308,"278":0.6417756080627441,"279":0.7362159490585327,"280":-0.6779012084007263,"281":-0.08164390921592712,"282":-0.635086715221405,"283":0.5773881077766418,"284":-0.7483204007148743,"285":-0.3204287588596344,"286":0.45620855689048767,"287":0.0415031798183918,"288":-0.3088323473930359,"289":-0.5281246900558472,"290":-0.8908495903015137,"291":0.7585047483444214,"292":0.5637722611427307,"293":0.4677152633666992,"294":-0.17950664460659027,"295":-0.6777382493019104,"296":0.0223871897906065,"297":-0.8543672561645508,"298":-0.6435551643371582,"299":-0.7623369097709656,"300":-1.0607229471206665,"301":-1.6541011333465576,"302":-0.08770886808633804,"303":0.14309760928153992,"304":-1.3480380773544312,"305":0.28990066051483154,"306":-0.291286438703537,"307":1.0216268301010132,"308":-0.014750642701983452,"309":0.4021470546722412,"310":-0.5183244347572327,"311":0.2941379249095917,"312":0.9095487594604492,"313":0.4347827136516571,"314":0.6737794876098633,"315":0.713654100894928,"316":0.7299411296844482,"317":-0.2681981027126312,"318":0.20612946152687073,"319":0.07295560836791992,"320":-0.20959101617336273,"321":0.48634567856788635,"322":-0.7133913040161133,"323":0.48061567544937134,"324":-1.5239603519439697,"325":1.2902542352676392,"326":-1.6928542852401733,"327":0.1797301322221756,"328":0.9879104495048523,"329":1.5775909423828125,"330":0.45327940583229065,"331":-1.2046605348587036,"332":-0.4138793647289276,"333":-0.5713877081871033,"334":1.4225256443023682,"335":1.6560585498809814,"336":-1.903456211090088,"337":1.2201074361801147,"338":1.5067239999771118,"339":0.9547842741012573,"340":-0.10347464680671692,"341":-0.24647663533687592,"342":-0.3367688059806824,"343":0.5634487271308899,"344":0.13903793692588806,"345":0.9186203479766846,"346":-1.0210304260253906,"347":-0.023185953497886658,"348":0.2579394578933716,"349":0.7148446440696716,"350":-0.8297759890556335,"351":0.07187683135271072,"352":-1.2052037715911865,"353":-0.2646821439266205,"354":0.6003954410552979,"355":0.6182856559753418,"356":-1.0094460248947144,"357":-0.021582502871751785,"358":0.5942938923835754,"359":0.6385323405265808,"360":-0.781130850315094,"361":-1.6292998790740967,"362":-0.11396853625774384,"363":0.6862363219261169,"364":-1.035417079925537,"365":-0.18867935240268707,"366":0.15583758056163788,"367":0.16456037759780884,"368":0.34533974528312683,"369":-0.1327110081911087,"370":-0.9185448884963989,"371":0.6864094138145447,"372":0.2709282338619232,"373":0.5597562789916992,"374":-0.014781372621655464,"375":0.11770710349082947,"376":-0.18262489140033722,"377":-0.4265189468860626,"378":-0.10084278881549835,"379":-0.43009427189826965,"380":-0.9303252696990967,"381":-2.3122665882110596,"382":-0.31593430042266846,"383":0.3804347515106201,"384":-0.9875133633613586,"385":-0.31639793515205383,"386":0.4342690408229828,"387":0.586169421672821,"388":-0.0752100721001625,"389":-0.27599582076072693,"390":-0.8768131732940674,"391":1.0775063037872314,"392":0.541326105594635,"393":0.9013674855232239,"394":-0.2646070420742035,"395":-0.28127798438072205,"396":0.03963666781783104,"397":-0.9565066695213318,"398":-0.5294928550720215,"399":-0.8530361652374268}},"inputBias":{"rows":20,"columns":1,"weights":{"0":-0.653846025466919,"1":0.023515624925494194,"2":-0.6952078938484192,"3":-0.6698242425918579,"4":-0.47006911039352417,"5":-0.3410980999469757,"6":-0.4959225356578827,"7":-0.44550201296806335,"8":-0.6638795137405396,"9":-0.808960497379303,"10":-0.23137332499027252,"11":-0.6166072487831116,"12":-0.33991581201553345,"13":-0.5637422204017639,"14":-0.1947297304868698,"15":-1.112008810043335,"16":-0.8331283330917358,"17":-0.5903671383857727,"18":-0.6548827290534973,"19":-0.5538498163223267}},"forgetMatrix":{"rows":20,"columns":1,"weights":{"0":-0.7042673826217651,"1":-0.05812344700098038,"2":0.30131402611732483,"3":0.49428635835647583,"4":-0.9598771929740906,"5":-0.22646503150463104,"6":-0.4752615690231323,"7":0.9772292375564575,"8":-0.9128755331039429,"9":-0.24585066735744476,"10":-1.0835908651351929,"11":1.4801723957061768,"12":0.18448984622955322,"13":1.1049766540527344,"14":0.4106621742248535,"15":0.1325945109128952,"16":0.626288890838623,"17":1.3986622095108032,"18":-0.956190288066864,"19":0.0657060444355011}},"forgetHidden":{"rows":20,"columns":20,"weights":{"0":-0.18658624589443207,"1":0.7495831847190857,"2":-0.050196364521980286,"3":0.7208800911903381,"4":-0.12692470848560333,"5":0.5681440830230713,"6":-0.39468255639076233,"7":0.01826142519712448,"8":0.3776353895664215,"9":0.2925928235054016,"10":-0.2418879270553589,"11":-0.10970431566238403,"12":-0.07464972883462906,"13":-0.3537595570087433,"14":0.47561490535736084,"15":0.1906740367412567,"16":-0.976082980632782,"17":0.08128039538860321,"18":0.2767742872238159,"19":0.08382251113653183,"20":-0.5560734272003174,"21":1.1596735715866089,"22":-1.029868721961975,"23":1.2899482250213623,"24":-0.3021787405014038,"25":0.27586328983306885,"26":-0.3387034237384796,"27":0.5581797957420349,"28":-0.44491174817085266,"29":0.2857650816440582,"30":-0.5541596412658691,"31":0.5626931190490723,"32":-0.5633686780929565,"33":0.35890093445777893,"34":0.5902112722396851,"35":0.0877072736620903,"36":1.5759087800979614,"37":0.7258692979812622,"38":-0.02945185825228691,"39":0.31657999753952026,"40":0.31024661660194397,"41":-1.5189622640609741,"42":0.06572752445936203,"43":0.00751815689727664,"44":-0.004547916818410158,"45":0.7282499074935913,"46":-1.0439850091934204,"47":1.051419734954834,"48":0.4283704459667206,"49":0.8371566534042358,"50":-0.0366077795624733,"51":-1.1064059734344482,"52":-0.5173123478889465,"53":-1.240434169769287,"54":0.6306920051574707,"55":1.0666687488555908,"56":0.8589457869529724,"57":-0.9109506011009216,"58":0.737370491027832,"59":0.6906919479370117,"60":-1.296830415725708,"61":-0.7229833006858826,"62":0.9036375284194946,"63":-2.7847111225128174,"64":-1.8665359020233154,"65":0.7504218220710754,"66":-1.0611491203308105,"67":0.09466966241598129,"68":-0.14082808792591095,"69":0.7962451577186584,"70":-0.8480234146118164,"71":0.8431592583656311,"72":0.15116003155708313,"73":2.0795693397521973,"74":0.7058688998222351,"75":0.8664786219596863,"76":-0.18764664232730865,"77":-0.27950772643089294,"78":0.5929959416389465,"79":0.4176352322101593,"80":0.04763062298297882,"81":0.6954271197319031,"82":0.2779979109764099,"83":0.34671637415885925,"84":-0.179201140999794,"85":0.547736406326294,"86":-0.4694518446922302,"87":0.039357878267765045,"88":0.5252521634101868,"89":0.27616801857948303,"90":-0.2423357218503952,"91":-0.00898604653775692,"92":-0.22999176383018494,"93":-0.034773942083120346,"94":0.21527643501758575,"95":0.1737252026796341,"96":-1.5866260528564453,"97":0.09317892789840698,"98":0.1576746255159378,"99":-0.11371464282274246,"100":-1.987306833267212,"101":-1.1291297674179077,"102":0.27556321024894714,"103":-0.7180854678153992,"104":-1.7182060480117798,"105":-0.26258692145347595,"106":0.2079884260892868,"107":0.19594456255435944,"108":0.9060271978378296,"109":-0.25300121307373047,"110":-0.2356756031513214,"111":0.17716990411281586,"112":0.7404305338859558,"113":0.04008833318948746,"114":-0.16762907803058624,"115":-0.28445830941200256,"116":-1.6555943489074707,"117":-0.5181945562362671,"118":-0.3309268653392792,"119":-0.42840325832366943,"120":-0.48080989718437195,"121":-1.013428807258606,"122":0.08316504955291748,"123":0.21448592841625214,"124":-0.49297425150871277,"125":-0.29947802424430847,"126":0.3374532461166382,"127":0.15629808604717255,"128":0.16329848766326904,"129":-0.2735871970653534,"130":-0.32006072998046875,"131":0.9911119341850281,"132":0.32309427857398987,"133":1.0210869312286377,"134":-0.14389650523662567,"135":-0.2916897237300873,"136":-0.3884197473526001,"137":-0.763170063495636,"138":-0.3487266004085541,"139":-0.4841955006122589,"140":-1.7747610807418823,"141":-0.9892593622207642,"142":-1.1420613527297974,"143":-0.41235366463661194,"144":-1.3212671279907227,"145":0.17367251217365265,"146":-0.12614132463932037,"147":1.224535584449768,"148":0.06748072803020477,"149":0.26357585191726685,"150":-2.1260080337524414,"151":-0.5582497119903564,"152":1.3857614994049072,"153":-0.6113343834877014,"154":0.23965875804424286,"155":0.4122014045715332,"156":0.9431583881378174,"157":-0.314460813999176,"158":0.01350252516567707,"159":-0.3202762305736542,"160":0.7566030621528625,"161":-0.2337196320295334,"162":1.1655972003936768,"163":0.5643863677978516,"164":0.19946491718292236,"165":0.5781434774398804,"166":-0.5925356149673462,"167":0.3487114906311035,"168":0.40740352869033813,"169":0.6104639768600464,"170":0.8668003082275391,"171":0.11400638520717621,"172":-0.7743951082229614,"173":0.011163576506078243,"174":0.5484367609024048,"175":0.552497386932373,"176":-0.059418901801109314,"177":-0.37894436717033386,"178":0.6682071685791016,"179":0.5417775511741638,"180":-0.30438172817230225,"181":-0.45614179968833923,"182":0.5572985410690308,"183":0.5481904745101929,"184":-0.3184872269630432,"185":-0.12388136982917786,"186":0.28475624322891235,"187":-0.09728223085403442,"188":0.4480220675468445,"189":-0.3446933925151825,"190":-0.2393539994955063,"191":0.8347461819648743,"192":0.22747419774532318,"193":0.7133493423461914,"194":-0.14319510757923126,"195":-0.22437404096126556,"196":-0.04284327104687691,"197":-0.8077446818351746,"198":-0.33578506112098694,"199":-0.3465772271156311,"200":0.5237318277359009,"201":-0.044808823615312576,"202":-0.7768018245697021,"203":0.39573416113853455,"204":-0.07266220450401306,"205":0.6088931560516357,"206":-0.9917128682136536,"207":0.2966006398200989,"208":-0.12194015830755234,"209":0.8602328300476074,"210":1.7368724346160889,"211":0.4828822910785675,"212":-0.5993574261665344,"213":0.6427273750305176,"214":0.17787577211856842,"215":0.6694262027740479,"216":1.3602408170700073,"217":-0.476651668548584,"218":0.6899808645248413,"219":0.3073994815349579,"220":-1.204352617263794,"221":-1.4046040773391724,"222":-0.0765906348824501,"223":-0.16711486876010895,"224":-1.0903679132461548,"225":0.6914589405059814,"226":-0.6896175742149353,"227":1.1944911479949951,"228":-1.0101464986801147,"229":0.848373532295227,"230":-0.284673273563385,"231":0.7317423820495605,"232":0.1573965698480606,"233":0.8174391984939575,"234":0.5719935894012451,"235":0.9505552053451538,"236":-0.38218921422958374,"237":-0.23831140995025635,"238":0.48912787437438965,"239":0.6572631001472473,"240":-0.4729042053222656,"241":-0.2360505908727646,"242":0.08783598989248276,"243":-1.4408032894134521,"244":0.01994853839278221,"245":0.07579471915960312,"246":0.1976354867219925,"247":0.5789234638214111,"248":0.1674049198627472,"249":0.18253594636917114,"250":-0.42454609274864197,"251":-0.45885467529296875,"252":0.7237287163734436,"253":-0.29431986808776855,"254":-0.049222931265830994,"255":-0.19647134840488434,"256":-0.8508236408233643,"257":0.06144479289650917,"258":-0.2352249175310135,"259":-0.1843598335981369,"260":-0.7418427467346191,"261":-0.6495016813278198,"262":0.1366119682788849,"263":0.43659788370132446,"264":-1.0862946510314941,"265":0.6738023161888123,"266":-0.7548463940620422,"267":1.4604614973068237,"268":0.3765512704849243,"269":0.8703286647796631,"270":-1.2098274230957031,"271":0.18644757568836212,"272":0.055312324315309525,"273":0.181167334318161,"274":0.6838568449020386,"275":1.143289566040039,"276":-0.9061866402626038,"277":-0.1259457767009735,"278":0.6101229190826416,"279":0.7696669697761536,"280":0.15286965668201447,"281":0.6388793587684631,"282":0.15876543521881104,"283":0.18760624527931213,"284":0.04447995871305466,"285":-0.785758376121521,"286":0.7905673384666443,"287":-0.7494043111801147,"288":0.22193294763565063,"289":-0.9275049567222595,"290":-0.04212607070803642,"291":-0.027211220934987068,"292":0.6093502044677734,"293":-0.11376060545444489,"294":-0.7867337465286255,"295":-0.9494768977165222,"296":-0.7136896252632141,"297":-0.05910932272672653,"298":-0.8302462100982666,"299":-1.143369436264038,"300":0.7001577615737915,"301":-0.3968447148799896,"302":1.6137791872024536,"303":0.5381777286529541,"304":0.7694447636604309,"305":-0.23125171661376953,"306":0.21678265929222107,"307":0.14282160997390747,"308":0.7217744588851929,"309":-0.15298783779144287,"310":1.7482941150665283,"311":0.785970151424408,"312":-0.30177128314971924,"313":0.5710529685020447,"314":-0.08219730108976364,"315":0.1381182074546814,"316":0.9860525131225586,"317":-0.8784012198448181,"318":-0.014574876986443996,"319":-0.21379207074642181,"320":0.8043591976165771,"321":0.5713476538658142,"322":-1.08341383934021,"323":0.04193605110049248,"324":0.48571252822875977,"325":0.34868744015693665,"326":-0.6574569940567017,"327":0.6513628363609314,"328":0.18844912946224213,"329":0.6660559177398682,"330":2.7670228481292725,"331":0.4375914931297302,"332":0.005901368800550699,"333":0.6921328902244568,"334":0.5694761872291565,"335":0.9385354518890381,"336":1.8046084642410278,"337":1.3180959224700928,"338":0.6326541304588318,"339":0.8510376811027527,"340":-0.8091380596160889,"341":-1.3065927028656006,"342":0.4693819284439087,"343":0.07896757125854492,"344":-1.1217014789581299,"345":0.8289481997489929,"346":-1.1622672080993652,"347":0.31804338097572327,"348":0.1281948685646057,"349":0.9688891768455505,"350":0.2617231011390686,"351":-0.5731415152549744,"352":-1.7980258464813232,"353":0.27152079343795776,"354":0.565031886100769,"355":1.1389180421829224,"356":1.3965625762939453,"357":0.6861523985862732,"358":1.0065745115280151,"359":0.7661916017532349,"360":0.17503170669078827,"361":-0.9347987174987793,"362":0.3442559540271759,"363":-0.7825688123703003,"364":0.21409998834133148,"365":-0.24233420193195343,"366":0.21547627449035645,"367":0.3946414291858673,"368":0.643049955368042,"369":-0.15589866042137146,"370":0.21234816312789917,"371":0.4422305226325989,"372":0.0649968832731247,"373":0.4017455577850342,"374":-0.0887150764465332,"375":-0.0689699575304985,"376":-0.9901154041290283,"377":0.038472965359687805,"378":-0.17516718804836273,"379":-0.41687461733818054,"380":0.31508567929267883,"381":-0.11474686115980148,"382":0.3082476854324341,"383":0.462539941072464,"384":0.17030492424964905,"385":-0.8405022025108337,"386":1.2009015083312988,"387":-0.6848304271697998,"388":0.37887197732925415,"389":-0.8169838190078735,"390":0.15211547911167145,"391":-0.08856648951768875,"392":0.5942496061325073,"393":-0.27269458770751953,"394":-0.7939189076423645,"395":-0.8420988321304321,"396":-0.2881495952606201,"397":0.07866737991571426,"398":-0.8310095071792603,"399":-1.1013742685317993}},"forgetBias":{"rows":20,"columns":1,"weights":{"0":0,"1":0,"2":0,"3":0,"4":0,"5":0,"6":0,"7":0,"8":0,"9":0,"10":0,"11":0,"12":0,"13":0,"14":0,"15":0,"16":0,"17":0,"18":0,"19":0}},"outputMatrix":{"rows":20,"columns":1,"weights":{"0":-0.958973228931427,"1":0.06214328110218048,"2":0.5132633447647095,"3":0.31575778126716614,"4":-1.3655670881271362,"5":-0.4069342017173767,"6":-0.3093067705631256,"7":0.4675081670284271,"8":-0.43073809146881104,"9":-0.03509931266307831,"10":0.32932040095329285,"11":0.6314012408256531,"12":-0.9535971879959106,"13":0.5369991660118103,"14":-0.5320271253585815,"15":0.2718818783760071,"16":1.2120933532714844,"17":0.975965678691864,"18":-0.75260329246521,"19":-0.5444364547729492}},"outputHidden":{"rows":20,"columns":20,"weights":{"0":0.3021738529205322,"1":-0.008549793623387814,"2":0.8584600687026978,"3":0.2390328049659729,"4":-0.11848926544189453,"5":0.4395979642868042,"6":-0.4349237382411957,"7":0.10686961561441422,"8":0.7823664546012878,"9":0.45256307721138,"10":0.6008397340774536,"11":-0.44071510434150696,"12":-0.6246307492256165,"13":-0.37078142166137695,"14":0.41785722970962524,"15":0.28682929277420044,"16":-0.657656729221344,"17":0.33128419518470764,"18":0.5498957633972168,"19":0.3226117789745331,"20":0.14142805337905884,"21":-0.1915111392736435,"22":0.18640513718128204,"23":1.2360700368881226,"24":-0.2640029788017273,"25":0.49787992238998413,"26":-0.6237426996231079,"27":-0.05022638291120529,"28":0.15628968179225922,"29":0.5580504536628723,"30":0.644673228263855,"31":-0.06389141082763672,"32":-0.3516736328601837,"33":-0.13655436038970947,"34":0.6555845737457275,"35":0.4196956157684326,"36":-0.2648095190525055,"37":-0.040720824152231216,"38":0.3865376114845276,"39":0.5121379494667053,"40":0.08228302001953125,"41":-0.788502037525177,"42":0.16062846779823303,"43":-0.26889941096305847,"44":-0.03812112286686897,"45":0.8123054504394531,"46":-1.0003479719161987,"47":1.2451767921447754,"48":0.27689796686172485,"49":0.9767192602157593,"50":0.050433699041604996,"51":-0.7629665732383728,"52":-0.6419742107391357,"53":-0.6603037714958191,"54":0.5909170508384705,"55":1.1779725551605225,"56":-0.6716172695159912,"57":0.08755996823310852,"58":0.7654337286949158,"59":0.6957610845565796,"60":-0.926755428314209,"61":-0.92496657371521,"62":0.30233538150787354,"63":-1.6378233432769775,"64":-1.0870252847671509,"65":0.6838783025741577,"66":-0.6971489191055298,"67":1.4499964714050293,"68":0.346682071685791,"69":0.5880129337310791,"70":-0.503703236579895,"71":0.038868799805641174,"72":0.8992582559585571,"73":0.7911831736564636,"74":0.7208637595176697,"75":0.5128228068351746,"76":0.6225577592849731,"77":0.24452035129070282,"78":0.3783893883228302,"79":0.38554832339286804,"80":0.3392453193664551,"81":0.922639012336731,"82":0.5743672251701355,"83":-0.0266159325838089,"84":0.27645212411880493,"85":0.4191611707210541,"86":-0.2164285033941269,"87":0.045115917921066284,"88":0.6217480301856995,"89":0.21330977976322174,"90":0.38211899995803833,"91":0.04454030096530914,"92":-0.2473602145910263,"93":-0.031136736273765564,"94":0.2068367749452591,"95":-0.09477323293685913,"96":-1.1133650541305542,"97":0.32474470138549805,"98":0.10164682567119598,"99":-0.05280919373035431,"100":-0.27633100748062134,"101":-0.5131099820137024,"102":-0.10487181693315506,"103":1.2794396877288818,"104":-0.32324230670928955,"105":-0.5463904142379761,"106":0.6254268884658813,"107":-0.24282397329807281,"108":-0.01254258118569851,"109":-0.6322596073150635,"110":-0.5437116622924805,"111":0.7584437727928162,"112":0.3901166617870331,"113":0.5411087274551392,"114":-0.3693855106830597,"115":-0.7020377516746521,"116":0.4324212074279785,"117":-0.7321246266365051,"118":-0.5641328692436218,"119":-0.7266126871109009,"120":-0.5286166071891785,"121":-0.7266216278076172,"122":-0.16918598115444183,"123":0.9579578042030334,"124":-0.6289825439453125,"125":-0.3764806091785431,"126":0.5488004684448242,"127":0.00048171725939027965,"128":0.1508921980857849,"129":-0.5532252192497253,"130":-0.9122830033302307,"131":0.679574191570282,"132":0.61027592420578,"133":0.4556734263896942,"134":-0.21070800721645355,"135":-0.41630807518959045,"136":0.35069411993026733,"137":-0.7379392385482788,"138":-0.504054605960846,"139":-0.8162949681282043,"140":-1.2560815811157227,"141":-0.5647977590560913,"142":-0.5242956876754761,"143":0.28160718083381653,"144":-1.0177379846572876,"145":0.054884012788534164,"146":0.07468288391828537,"147":0.8376054763793945,"148":-0.5124351382255554,"149":-0.26787394285202026,"150":-1.9501140117645264,"151":-0.04077494889497757,"152":1.1491515636444092,"153":-0.4967825710773468,"154":0.2327422797679901,"155":0.03158895671367645,"156":1.3256850242614746,"157":-0.5234531760215759,"158":-0.2332099825143814,"159":-0.6592252850532532,"160":0.1319948136806488,"161":0.1698346883058548,"162":0.7968160510063171,"163":-0.2140171080827713,"164":-0.07178398966789246,"165":0.7046436667442322,"166":-0.7662878632545471,"167":0.28822457790374756,"168":0.05001728981733322,"169":0.6864509582519531,"170":0.3918290138244629,"171":0.19529424607753754,"172":-0.5248140692710876,"173":0.5616176128387451,"174":0.5897328853607178,"175":0.6799178719520569,"176":-0.09032567590475082,"177":-0.08662436157464981,"178":0.754504382610321,"179":0.6211346983909607,"180":-0.7048877477645874,"181":-0.5056688785552979,"182":-0.2774008810520172,"183":0.8995605111122131,"184":-0.8364577293395996,"185":-0.10963419824838638,"186":0.3206859529018402,"187":0.12421610206365585,"188":0.04933156445622444,"189":-0.28665781021118164,"190":-1.2715541124343872,"191":0.7770191431045532,"192":0.7551670074462891,"193":0.5547627210617065,"194":-0.05292203277349472,"195":-0.1970856785774231,"196":0.3575858473777771,"197":-0.8410459160804749,"198":-0.3681471347808838,"199":-0.5987026691436768,"200":-0.4061843454837799,"201":-0.7242661118507385,"202":0.17753438651561737,"203":-1.4580708742141724,"204":-0.7215107679367065,"205":0.8390756249427795,"206":-0.964299201965332,"207":1.5625423192977905,"208":0.35312193632125854,"209":1.1984584331512451,"210":0.30849313735961914,"211":0.12583337724208832,"212":-0.2499605417251587,"213":0.16278159618377686,"214":0.7671759724617004,"215":0.9189270734786987,"216":-1.1843024492263794,"217":-0.6020792126655579,"218":0.7281204462051392,"219":0.7087302803993225,"220":-0.4651170074939728,"221":-0.6010802984237671,"222":-0.385079026222229,"223":0.06206139922142029,"224":-0.44301021099090576,"225":0.6164751648902893,"226":-0.6962199211120605,"227":0.9910069704055786,"228":-0.5198613405227661,"229":0.7257362008094788,"230":0.003158202162012458,"231":0.44507554173469543,"232":-0.09729105234146118,"233":0.16161468625068665,"234":0.6353060603141785,"235":0.9730951189994812,"236":-0.0701342299580574,"237":-0.33275148272514343,"238":0.6000262498855591,"239":0.7152416110038757,"240":-1.9390950202941895,"241":-0.47464022040367126,"242":-2.00394344329834,"243":-0.7295960187911987,"244":-1.0351877212524414,"245":-0.08226682990789413,"246":0.20620207488536835,"247":0.5118288993835449,"248":-0.41172274947166443,"249":0.04253466799855232,"250":-3.529046058654785,"251":-0.4323118031024933,"252":-0.3394492268562317,"253":-0.45504340529441833,"254":-0.04539991170167923,"255":-0.1511651873588562,"256":-0.4408881366252899,"257":-0.691931426525116,"258":-0.3687133193016052,"259":-0.24261465668678284,"260":-0.2583397626876831,"261":-0.41544994711875916,"262":0.5886852741241455,"263":0.7574538588523865,"264":-0.5597797632217407,"265":0.5852567553520203,"266":-0.6916947364807129,"267":1.137690544128418,"268":0.5047343969345093,"269":0.7589974999427795,"270":-0.3703736364841461,"271":0.424146831035614,"272":-0.06923855096101761,"273":0.4430578649044037,"274":0.634903073310852,"275":0.9293949007987976,"276":-0.6038548946380615,"277":-0.0014501250116154552,"278":0.7307557463645935,"279":0.7259259223937988,"280":-0.5484507083892822,"281":0.274196058511734,"282":-0.21279264986515045,"283":1.1353116035461426,"284":-0.4625723361968994,"285":-0.5441697835922241,"286":0.5913854241371155,"287":-0.11348790675401688,"288":0.11280644685029984,"289":-0.7330299615859985,"290":-0.7471786737442017,"291":0.8674603700637817,"292":0.48499181866645813,"293":0.38310784101486206,"294":-0.4354584515094757,"295":-0.9080835580825806,"296":-0.3046134412288666,"297":-1.108211874961853,"298":-0.8593930006027222,"299":-1.1224732398986816,"300":-0.5771815776824951,"301":-0.6565849184989929,"302":0.18782055377960205,"303":0.6235007047653198,"304":-0.7674167156219482,"305":-0.031813908368349075,"306":0.05521469563245773,"307":0.43339455127716064,"308":0.045073479413986206,"309":-0.0796421617269516,"310":-0.4718032479286194,"311":0.4699306786060333,"312":0.5933161973953247,"313":0.2767695188522339,"314":0.23742346465587616,"315":0.1466623991727829,"316":0.7186124324798584,"317":-0.7985742092132568,"318":-0.11426455527544022,"319":-0.2805374264717102,"320":0.008924910798668861,"321":0.2514558732509613,"322":-0.6158138513565063,"323":-0.37803274393081665,"324":-1.2119295597076416,"325":1.0479618310928345,"326":-1.6541587114334106,"327":0.7382255792617798,"328":0.42965611815452576,"329":1.5750908851623535,"330":1.1194722652435303,"331":-0.7076131105422974,"332":-0.49806493520736694,"333":-0.3176668882369995,"334":1.282958984375,"335":1.8144773244857788,"336":-0.8005368113517761,"337":0.7350501418113708,"338":1.3403421640396118,"339":0.9459277391433716,"340":-0.4839828312397003,"341":-0.575345516204834,"342":0.022180303931236267,"343":0.17933669686317444,"344":-0.3266644775867462,"345":0.8986807465553284,"346":-1.0601191520690918,"347":0.10585425049066544,"348":0.19383114576339722,"349":0.8779695630073547,"350":-0.4624917507171631,"351":-0.17264896631240845,"352":-1.084232211112976,"353":0.10723476111888885,"354":0.7170162200927734,"355":0.9253501892089844,"356":-0.5883161425590515,"357":0.06376495212316513,"358":0.8464472889900208,"359":0.6000643372535706,"360":-0.565625011920929,"361":-1.3596800565719604,"362":0.27672338485717773,"363":0.8552623391151428,"364":-0.8440357446670532,"365":-0.2835097312927246,"366":0.2168697565793991,"367":0.16188596189022064,"368":0.5044256448745728,"369":-0.22153383493423462,"370":-0.7587302923202515,"371":0.6657320261001587,"372":0.2114989310503006,"373":0.4532328248023987,"374":-0.08038049191236496,"375":-0.13066443800926208,"376":-0.26704636216163635,"377":-0.5547739863395691,"378":-0.057835131883621216,"379":-0.45768654346466064,"380":-0.7544276714324951,"381":-2.11322021484375,"382":-0.47147348523139954,"383":0.8626905679702759,"384":-1.0213154554367065,"385":-0.4030856788158417,"386":0.5960031151771545,"387":0.26004713773727417,"388":0.1628226786851883,"389":-0.37097030878067017,"390":-0.9762206077575684,"391":1.252907395362854,"392":0.4258075952529907,"393":0.9044463038444519,"394":-0.348407506942749,"395":-0.5011494755744934,"396":-0.23256196081638336,"397":-1.2667182683944702,"398":-0.7246553897857666,"399":-1.130849003791809}},"outputBias":{"rows":20,"columns":1,"weights":{"0":-0.6572341918945312,"1":0.011526678688824177,"2":-0.7053415179252625,"3":-0.6822344660758972,"4":-0.46775728464126587,"5":-0.33751827478408813,"6":-0.47958052158355713,"7":-0.44092878699302673,"8":-0.6742926836013794,"9":-0.8076290488243103,"10":-0.22136375308036804,"11":-0.6282380819320679,"12":-0.3609922230243683,"13":-0.5753581523895264,"14":-0.1938539445400238,"15":-1.0964775085449219,"16":-0.8456707000732422,"17":-0.604543149471283,"18":-0.6499581336975098,"19":-0.548159658908844}},"cellActivationMatrix":{"rows":20,"columns":1,"weights":{"0":-0.6217631697654724,"1":-0.38517406582832336,"2":0.07105875015258789,"3":-1.1219218969345093,"4":-1.4412933588027954,"5":1.3555560111999512,"6":-2.1233861446380615,"7":1.0825830698013306,"8":1.1112711429595947,"9":1.8628151416778564,"10":-1.3909692764282227,"11":-0.8581318855285645,"12":0.8151509165763855,"13":-0.23031780123710632,"14":0.4147840142250061,"15":4.29314661026001,"16":-2.1440348625183105,"17":0.5512141585350037,"18":2.4568419456481934,"19":0.28536686301231384}},"cellActivationHidden":{"rows":20,"columns":20,"weights":{"0":-0.7265841364860535,"1":-0.722888708114624,"2":-0.16469009220600128,"3":0.5708562731742859,"4":-1.046326994895935,"5":0.04091644287109375,"6":-0.3397676944732666,"7":-0.27265995740890503,"8":-0.5960720181465149,"9":0.36278775334358215,"10":-0.4663637578487396,"11":-0.032070357352495193,"12":-1.1220492124557495,"13":-0.10726611316204071,"14":0.19891321659088135,"15":0.706961452960968,"16":1.2860664129257202,"17":-0.14093482494354248,"18":0.6440092921257019,"19":0.6949586272239685,"20":2.5028910636901855,"21":-0.6006675958633423,"22":-2.0186824798583984,"23":0.13310010731220245,"24":1.674129843711853,"25":-0.8626691699028015,"26":0.8349469304084778,"27":-0.9542391300201416,"28":-2.1530025005340576,"29":-0.766453206539154,"30":-0.4510887861251831,"31":0.19927828013896942,"32":0.0005293589783832431,"33":-0.21368688344955444,"34":-0.4054885804653168,"35":-0.3606839179992676,"36":-0.9025261998176575,"37":-1.3113359212875366,"38":-0.7955297827720642,"39":-0.4158182740211487,"40":0.9667478799819946,"41":-0.4819693863391876,"42":0.2951801121234894,"43":-0.16230027377605438,"44":-0.004843891132622957,"45":-0.544186532497406,"46":0.4393554925918579,"47":-0.9972724318504333,"48":1.0277769565582275,"49":-0.46209079027175903,"50":2.03883957862854,"51":-0.36757007241249084,"52":0.03318781778216362,"53":-0.41493839025497437,"54":-0.35777586698532104,"55":-0.030282383784651756,"56":0.7085253596305847,"57":1.8046915531158447,"58":-0.16449099779129028,"59":-0.3509839177131653,"60":-0.27825355529785156,"61":0.31685343384742737,"62":0.7925103306770325,"63":0.9394344091415405,"64":-0.5547246932983398,"65":0.6127007007598877,"66":-0.7060942053794861,"67":0.41011112928390503,"68":0.9342731833457947,"69":0.523465633392334,"70":-0.4927332401275635,"71":-0.5673009753227234,"72":0.25292444229125977,"73":-1.081733226776123,"74":0.43360021710395813,"75":0.4005891978740692,"76":-2.481499433517456,"77":0.2618595063686371,"78":0.596564769744873,"79":0.0748843103647232,"80":-0.2924661636352539,"81":-0.20366229116916656,"82":0.03469300642609596,"83":0.8287245631217957,"84":-0.2747226357460022,"85":-0.36750370264053345,"86":0.4424164891242981,"87":-0.9592015743255615,"88":-0.47512075304985046,"89":-0.3745124340057373,"90":0.08867084980010986,"91":0.23005104064941406,"92":-0.8622843027114868,"93":-0.0020714502315968275,"94":-0.6306139826774597,"95":-0.5232496857643127,"96":1.098526954650879,"97":-0.1487700641155243,"98":-0.19757066667079926,"99":-0.19372813403606415,"100":0.4043903648853302,"101":0.07732153683900833,"102":1.0129978656768799,"103":-0.5404274463653564,"104":0.43932801485061646,"105":-0.49895212054252625,"106":0.35333675146102905,"107":0.048812415450811386,"108":0.5005776882171631,"109":-0.16165141761302948,"110":0.6735190749168396,"111":-0.18217818439006805,"112":0.1114731878042221,"113":-0.15032082796096802,"114":-0.33393171429634094,"115":-0.05006106197834015,"116":-0.5420371890068054,"117":0.07408702373504639,"118":-0.846922755241394,"119":-0.3998246192932129,"120":-0.4044887125492096,"121":-0.21664464473724365,"122":-1.2200857400894165,"123":0.7217687368392944,"124":-0.44786712527275085,"125":0.3811020255088806,"126":-0.2024134397506714,"127":-0.038227565586566925,"128":-0.6257088780403137,"129":-0.32177406549453735,"130":-0.8956702351570129,"131":0.36362817883491516,"132":0.30335816740989685,"133":0.30988314747810364,"134":0.2907484769821167,"135":-0.3740377724170685,"136":0.6124664545059204,"137":-0.4651845395565033,"138":0.5851776599884033,"139":-0.021675048395991325,"140":0.18806371092796326,"141":0.01935333013534546,"142":0.5112897157669067,"143":-0.10083073377609253,"144":0.46863576769828796,"145":-0.25079256296157837,"146":0.21845443546772003,"147":0.10438266396522522,"148":0.7029336094856262,"149":-0.4140331745147705,"150":0.401936411857605,"151":-0.7465941905975342,"152":3.3249337673187256,"153":-0.8559333086013794,"154":0.05934583768248558,"155":-0.05030498281121254,"156":0.08048484474420547,"157":0.012241258285939693,"158":-0.604572057723999,"159":-0.33151838183403015,"160":0.11586254835128784,"161":0.4864463210105896,"162":-0.35256168246269226,"163":0.8990463018417358,"164":-0.022294124588370323,"165":-0.15798607468605042,"166":0.04483173042535782,"167":-0.8086295127868652,"168":0.8392829895019531,"169":-0.2657392919063568,"170":-0.7457309365272522,"171":-0.8641265630722046,"172":-0.4487658441066742,"173":-0.2947102189064026,"174":-0.23306123912334442,"175":0.18847627937793732,"176":-1.4166377782821655,"177":1.6017578840255737,"178":0.2077232450246811,"179":-0.052832745015621185,"180":0.4180702269077301,"181":-0.17840518057346344,"182":1.5229253768920898,"183":-0.5788085460662842,"184":0.4084896147251129,"185":0.11175351589918137,"186":-0.1357630491256714,"187":0.27254191040992737,"188":0.7293487191200256,"189":0.3621669113636017,"190":0.7512542605400085,"191":-0.4353347718715668,"192":0.5103963017463684,"193":-0.23393619060516357,"194":0.03946339711546898,"195":0.3269583582878113,"196":-0.32843178510665894,"197":0.6430210471153259,"198":-0.15152858197689056,"199":0.08181602507829666,"200":-0.5142371654510498,"201":-1.0124682188034058,"202":-0.6511536240577698,"203":0.004302630666643381,"204":-1.1812708377838135,"205":-0.10694079101085663,"206":-0.3405176103115082,"207":-0.3367232382297516,"208":-1.0453071594238281,"209":0.583539605140686,"210":-1.1646276712417603,"211":-0.022618534043431282,"212":0.02001808024942875,"213":0.15812373161315918,"214":0.3235141932964325,"215":1.0636624097824097,"216":0.957977294921875,"217":0.44157910346984863,"218":0.8266881108283997,"219":0.9041564464569092,"220":0.31858158111572266,"221":0.6031740307807922,"222":0.09449157863855362,"223":-0.546541690826416,"224":-0.12473255395889282,"225":0.1540950983762741,"226":-0.2866532802581787,"227":0.4128428101539612,"228":-0.16217271983623505,"229":0.28833380341529846,"230":1.3148584365844727,"231":1.1153725385665894,"232":0.21894510090351105,"233":0.7172768115997314,"234":0.3464406132698059,"235":0.3441803753376007,"236":0.5562860369682312,"237":-0.7535709142684937,"238":0.24651232361793518,"239":0.3861769139766693,"240":0.0757707729935646,"241":-0.6300815343856812,"242":-0.469476580619812,"243":0.11137992888689041,"244":0.4440300166606903,"245":-0.4810252785682678,"246":0.4682839512825012,"247":0.23251773416996002,"248":-0.11901450902223587,"249":-0.41819438338279724,"250":-0.21210496127605438,"251":-0.10701708495616913,"252":1.331876516342163,"253":0.1726100891828537,"254":-0.21924759447574615,"255":-0.49451467394828796,"256":-0.090969517827034,"257":0.17935360968112946,"258":-0.5491780638694763,"259":-0.26433736085891724,"260":0.40428847074508667,"261":1.288079857826233,"262":0.01111521665006876,"263":-0.8541056513786316,"264":0.25274932384490967,"265":0.1743198037147522,"266":-0.31028392910957336,"267":0.2102663516998291,"268":0.3925397992134094,"269":0.3763393461704254,"270":-0.01384408213198185,"271":1.283962607383728,"272":-0.48792389035224915,"273":3.0597598552703857,"274":0.13874495029449463,"275":0.13531476259231567,"276":0.5660339593887329,"277":0.20760655403137207,"278":0.12918727099895477,"279":0.270153671503067,"280":0.12121070921421051,"281":0.08814377337694168,"282":0.35613831877708435,"283":-0.5768944621086121,"284":0.07777559012174606,"285":0.1978738009929657,"286":-0.22427426278591156,"287":0.712550938129425,"288":0.4997265934944153,"289":0.36081594228744507,"290":0.16353009641170502,"291":-0.6740794777870178,"292":0.27780240774154663,"293":-0.7439621090888977,"294":0.5524160265922546,"295":0.5288797616958618,"296":-0.2588079273700714,"297":0.16535864770412445,"298":0.36852970719337463,"299":0.3530674874782562,"300":0.3839922845363617,"301":-0.07937838137149811,"302":1.4612160921096802,"303":0.4964219331741333,"304":0.24145622551441193,"305":0.11922738701105118,"306":-0.20220504701137543,"307":-0.1578066647052765,"308":0.8854860663414001,"309":0.5433965921401978,"310":0.8555983901023865,"311":-0.42835909128189087,"312":0.541976809501648,"313":-0.14253650605678558,"314":-0.08031850308179855,"315":0.9778507351875305,"316":0.1759975254535675,"317":1.0848157405853271,"318":0.10202876478433609,"319":0.12459318339824677,"320":-1.1976284980773926,"321":0.8241870999336243,"322":0.2638213634490967,"323":-1.2495585680007935,"324":-0.6943289041519165,"325":0.4590654671192169,"326":-0.5373315811157227,"327":0.9391883611679077,"328":0.32024383544921875,"329":0.5105744004249573,"330":-0.9977589249610901,"331":-1.6026132106781006,"332":0.12327839434146881,"333":-1.4540730714797974,"334":0.6378393173217773,"335":0.28162360191345215,"336":-1.21592116355896,"337":1.6324665546417236,"338":-0.012399685569107533,"339":0.21722511947155,"340":-0.9495204091072083,"341":-0.5483617186546326,"342":-2.068669319152832,"343":0.9413710832595825,"344":0.13085177540779114,"345":0.008375589735805988,"346":0.004005851689726114,"347":-0.2724553644657135,"348":-0.23850905895233154,"349":-0.08499588817358017,"350":-1.2615211009979248,"351":-0.22129856050014496,"352":-0.15551385283470154,"353":1.2003248929977417,"354":-0.3345561623573303,"355":-0.20685499906539917,"356":-1.0836987495422363,"357":1.0070433616638184,"358":0.03418814390897751,"359":-0.25384894013404846,"360":0.23434863984584808,"361":-0.2499479502439499,"362":0.9089769124984741,"363":-0.319696307182312,"364":0.3596259653568268,"365":-0.10174134373664856,"366":0.05061918497085571,"367":0.22215266525745392,"368":0.3763110935688019,"369":0.8567034602165222,"370":0.8143751621246338,"371":-0.12410401552915573,"372":-0.9610568881034851,"373":0.1305721253156662,"374":-0.24650375545024872,"375":0.8575082421302795,"376":-0.20373418927192688,"377":0.49703332781791687,"378":-0.25069475173950195,"379":0.13736437261104584,"380":0.08257248252630234,"381":0.6084214448928833,"382":0.8039526343345642,"383":-0.35493841767311096,"384":0.003367215394973755,"385":0.7488980889320374,"386":-0.8806749582290649,"387":0.4469093382358551,"388":0.7406769394874573,"389":0.8129960894584656,"390":0.44902336597442627,"391":-0.665086030960083,"392":-0.7444578409194946,"393":-0.5471394062042236,"394":0.6491754055023193,"395":0.8824684619903564,"396":-0.3804406523704529,"397":0.7425364851951599,"398":0.5716642737388611,"399":0.6644106507301331}},"cellActivationBias":{"rows":20,"columns":1,"weights":{"0":0.017710784450173378,"1":0.5890721678733826,"2":0.20731399953365326,"3":0.05489443242549896,"4":0.08917976170778275,"5":0.0525251105427742,"6":0.018165189772844315,"7":0.09668851643800735,"8":-0.11545486748218536,"9":0.009898909367620945,"10":0.40471431612968445,"11":-0.021389663219451904,"12":-0.4049060344696045,"13":-0.10333707183599472,"14":-0.016984332352876663,"15":-0.22170786559581757,"16":0.0909687876701355,"17":0.1511819213628769,"18":-0.037263911217451096,"19":-0.09904112666845322}}}],"outputConnector":{"rows":1,"columns":20,"weights":{"0":0.28121957182884216,"1":0.7751882672309875,"2":0.1523873209953308,"3":-0.4234812259674072,"4":0.22808831930160522,"5":0.547203540802002,"6":-0.7959465980529785,"7":0.7702483534812927,"8":0.0030124273616820574,"9":1.221733570098877,"10":0.5257833003997803,"11":-0.22667258977890015,"12":-0.9711135625839233,"13":-0.13238979876041412,"14":0.14087191224098206,"15":1.5600851774215698,"16":-0.5318939685821533,"17":0.5063708424568176,"18":0.8238077163696289,"19":0.48071035742759705}},"output":{"rows":1,"columns":1,"weights":{"0":-0.2017991989850998}},"inputLookup":null,"inputLookupLength":null,"outputLookup":null,"outputLookupLength":null}